#pragma once
#include <cstdarg>
namespace Eloquent {
    namespace ML {
        namespace Port {
            class SVM {
                public:
                    /**
                    * Predict class for features vector
                    */
                    int predict(float *x) {
                        float kernels[79] = { 0 };
                        float decisions[3] = { 0 };
                        int votes[3] = { 0 };
                        kernels[0] = compute_kernel(x,   32.779999  , 38.139999  , 40.459999  , 41.579998  , 40.459999  , 39.32  , 35.279999  , 34.34  , 33.959999  , 36.380001  , 35.099998  , 34.139999  , 34.899998  , 38.98  , 30.699999  , 19.82  , 17.359999  , 20.139999  , 25.599998  , 23.18  , 22.02  , 16.98  , 12.54  , 10.219999  , 5.1  , 0.0  , 0.0  , 3.62  , 9.559999  , 13.04  , 16.58  , 19.48  , 22.02  , 22.879999  , 24.0  , 22.299999  , 21.4  , 21.719999  , 21.4  , 19.48  , 18.459999  , 17.719999  , 18.799999  , 17.359999  , 16.58  , 14.92  , 14.92  , 14.02  , 12.54  , 11.44  , 10.86  , 8.86  , 8.08  , 6.26  , 8.08  , 8.08  , 8.08  , 7.24  , 6.26  , 5.1  , 7.24  , 7.24  , 5.1  , 3.62 );
                        kernels[1] = compute_kernel(x,   21.719999  , 23.18  , 23.459999  , 22.6  , 22.02  , 22.02  , 21.1  , 19.82  , 18.459999  , 17.359999  , 16.18  , 15.339999  , 15.339999  , 14.92  , 14.02  , 13.54  , 13.04  , 12.0  , 11.44  , 10.219999  , 9.559999  , 8.08  , 7.24  , 6.26  , 5.1  , 5.1  , 3.62  , 3.62  , 3.62  , 3.62  , 0.0  , 0.0  , 0.0  , 0.0  , 0.0  , 0.0  , 0.0  , 0.0  , 0.0  , 0.0  , 0.0  , 0.0  , 0.0  , 0.0  , 0.0  , 0.0  , 0.0  , 0.0  , 0.0  , 0.0  , 0.0  , 0.0  , 0.0  , 0.0  , 0.0  , 0.0  , 0.0  , 0.0  , 0.0  , 0.0  , 0.0  , 0.0  , 0.0  , 0.0 );
                        kernels[2] = compute_kernel(x,   31.959999  , 32.98  , 33.18  , 18.799999  , 18.459999  , 33.18  , 38.639999  , 23.74  , 20.779999  , 13.04  , 8.86  , 5.1  , 5.1  , 9.559999  , 12.54  , 16.98  , 18.1  , 22.02  , 23.74  , 26.099998  , 25.08  , 26.099998  , 24.539999  , 23.18  , 24.279999  , 21.719999  , 20.459999  , 20.139999  , 16.98  , 18.459999  , 14.92  , 13.04  , 12.0  , 12.0  , 14.48  , 12.54  , 12.0  , 10.219999  , 8.86  , 9.559999  , 5.1  , 8.86  , 8.08  , 8.08  , 8.08  , 7.24  , 3.62  , 5.1  , 5.1  , 0.0  , 0.0  , 0.0  , 0.0  , 5.1  , 3.62  , 3.62  , 3.62  , 3.62  , 6.26  , 5.1  , 5.1  , 3.62  , 3.62  , 3.62 );
                        kernels[3] = compute_kernel(x,   22.02  , 25.34  , 28.5  , 29.84  , 28.959999  , 27.799999  , 27.08  , 25.599998  , 23.74  , 22.6  , 20.459999  , 20.459999  , 20.459999  , 19.139999  , 17.359999  , 16.98  , 14.92  , 13.54  , 12.54  , 10.219999  , 9.559999  , 8.86  , 9.559999  , 9.559999  , 8.86  , 8.08  , 7.24  , 7.24  , 6.26  , 5.1  , 5.1  , 3.62  , 5.1  , 6.26  , 6.26  , 6.26  , 6.26  , 5.1  , 5.1  , 5.1  , 3.62  , 3.62  , 0.0  , 0.0  , 0.0  , 0.0  , 0.0  , 0.0  , 0.0  , 0.0  , 0.0  , 0.0  , 0.0  , 0.0  , 0.0  , 0.0  , 0.0  , 0.0  , 0.0  , 0.0  , 0.0  , 0.0  , 0.0  , 0.0 );
                        kernels[4] = compute_kernel(x,   33.18  , 31.34  , 34.34  , 28.959999  , 27.559999  , 23.459999  , 19.82  , 20.139999  , 22.299999  , 14.92  , 14.48  , 15.78  , 22.299999  , 21.4  , 23.18  , 17.359999  , 13.04  , 10.86  , 8.08  , 0.0  , 3.62  , 7.24  , 10.86  , 13.54  , 16.18  , 18.459999  , 17.359999  , 23.18  , 18.1  , 13.54  , 10.86  , 9.559999  , 8.86  , 8.08  , 9.559999  , 11.44  , 14.48  , 15.78  , 16.18  , 15.78  , 14.92  , 14.02  , 12.54  , 11.44  , 9.559999  , 8.86  , 7.24  , 7.24  , 6.26  , 6.26  , 6.26  , 6.26  , 6.26  , 5.1  , 5.1  , 5.1  , 5.1  , 3.62  , 3.62  , 3.62  , 3.62  , 0.0  , 0.0  , 0.0 );
                        kernels[5] = compute_kernel(x,   36.919998  , 34.34  , 30.279999  , 25.84  , 22.299999  , 19.48  , 17.359999  , 11.44  , 5.1  , 10.219999  , 18.1  , 19.48  , 11.44  , 5.1  , 10.86  , 7.24  , 8.08  , 0.0  , 0.0  , 3.62  , 5.1  , 6.26  , 8.86  , 10.219999  , 11.44  , 13.04  , 14.02  , 11.44  , 14.02  , 11.44  , 13.54  , 10.219999  , 9.559999  , 10.219999  , 8.86  , 10.219999  , 9.559999  , 10.219999  , 8.86  , 8.86  , 6.26  , 5.1  , 6.26  , 6.26  , 5.1  , 3.62  , 3.62  , 3.62  , 5.1  , 3.62  , 3.62  , 3.62  , 5.1  , 6.26  , 5.1  , 3.62  , 0.0  , 0.0  , 0.0  , 0.0  , 0.0  , 0.0  , 0.0  , 0.0 );
                        kernels[6] = compute_kernel(x,   22.6  , 22.299999  , 23.459999  , 23.74  , 24.279999  , 24.0  , 22.879999  , 22.02  , 21.1  , 20.459999  , 19.139999  , 18.1  , 17.359999  , 16.18  , 15.339999  , 14.48  , 14.92  , 13.04  , 12.54  , 12.0  , 10.219999  , 9.559999  , 8.86  , 8.86  , 8.86  , 8.86  , 8.86  , 8.08  , 7.24  , 6.26  , 6.26  , 5.1  , 5.1  , 3.62  , 3.62  , 3.62  , 3.62  , 3.62  , 0.0  , 0.0  , 0.0  , 0.0  , 0.0  , 0.0  , 3.62  , 3.62  , 3.62  , 3.62  , 3.62  , 3.62  , 0.0  , 0.0  , 0.0  , 0.0  , 0.0  , 0.0  , 0.0  , 0.0  , 0.0  , 0.0  , 0.0  , 0.0  , 0.0  , 0.0 );
                        kernels[7] = compute_kernel(x,   47.739998  , 43.119999  , 53.32  , 59.48  , 53.439999  , 51.84  , 51.959999  , 53.939999  , 53.32  , 48.16  , 36.739998  , 30.059999  , 28.5  , 30.92  , 30.92  , 22.6  , 17.359999  , 24.279999  , 23.74  , 17.359999  , 14.92  , 10.86  , 8.86  , 3.62  , 0.0  , 6.26  , 10.86  , 15.339999  , 16.98  , 19.82  , 19.82  , 19.139999  , 20.139999  , 22.879999  , 22.299999  , 22.6  , 20.779999  , 20.459999  , 20.139999  , 19.82  , 18.1  , 16.18  , 14.48  , 14.92  , 15.78  , 16.98  , 14.02  , 10.86  , 9.559999  , 11.44  , 10.219999  , 8.86  , 8.08  , 7.24  , 7.24  , 7.24  , 8.86  , 7.24  , 6.26  , 7.24  , 5.1  , 3.62  , 5.1  , 3.62 );
                        kernels[8] = compute_kernel(x,   28.26  , 32.18  , 31.76  , 29.84  , 27.32  , 24.0  , 22.299999  , 22.6  , 22.879999  , 22.6  , 23.18  , 23.18  , 21.719999  , 20.459999  , 20.139999  , 19.139999  , 17.719999  , 16.58  , 14.48  , 13.54  , 13.54  , 12.54  , 11.44  , 10.86  , 10.219999  , 9.559999  , 8.86  , 8.08  , 8.08  , 7.24  , 7.24  , 7.24  , 6.26  , 6.26  , 5.1  , 3.62  , 3.62  , 3.62  , 3.62  , 3.62  , 3.62  , 3.62  , 3.62  , 0.0  , 0.0  , 0.0  , 0.0  , 0.0  , 0.0  , 0.0  , 0.0  , 0.0  , 0.0  , 0.0  , 0.0  , 0.0  , 0.0  , 0.0  , 0.0  , 0.0  , 0.0  , 0.0  , 0.0  , 0.0 );
                        kernels[9] = compute_kernel(x,   19.82  , 12.54  , 8.08  , 6.26  , 8.08  , 7.24  , 7.24  , 12.0  , 14.02  , 12.54  , 10.219999  , 7.24  , 3.62  , 0.0  , 0.0  , 3.62  , 8.86  , 14.02  , 17.359999  , 18.799999  , 18.1  , 17.719999  , 17.719999  , 17.719999  , 17.359999  , 16.98  , 16.18  , 15.78  , 15.339999  , 14.92  , 14.92  , 14.48  , 14.02  , 13.54  , 12.54  , 11.44  , 10.219999  , 9.559999  , 8.86  , 8.08  , 7.24  , 7.24  , 6.26  , 6.26  , 5.1  , 5.1  , 5.1  , 3.62  , 3.62  , 3.62  , 3.62  , 0.0  , 0.0  , 0.0  , 0.0  , 0.0  , 0.0  , 0.0  , 0.0  , 0.0  , 0.0  , 0.0  , 0.0  , 0.0 );
                        kernels[10] = compute_kernel(x,   20.779999  , 14.48  , 10.219999  , 0.0  , 3.62  , 0.0  , 5.1  , 13.04  , 16.58  , 13.04  , 10.86  , 6.26  , 3.62  , 0.0  , 3.62  , 7.24  , 9.559999  , 13.04  , 14.48  , 16.18  , 15.78  , 16.18  , 15.78  , 16.18  , 16.98  , 14.92  , 14.92  , 12.0  , 14.92  , 15.78  , 15.78  , 13.54  , 12.54  , 12.0  , 13.04  , 10.219999  , 10.219999  , 9.559999  , 7.24  , 7.24  , 6.26  , 5.1  , 5.1  , 5.1  , 6.26  , 3.62  , 5.1  , 5.1  , 5.1  , 6.26  , 5.1  , 5.1  , 5.1  , 5.1  , 5.1  , 5.1  , 3.62  , 0.0  , 3.62  , 3.62  , 3.62  , 3.62  , 3.62  , 0.0 );
                        kernels[11] = compute_kernel(x,   22.879999  , 24.0  , 25.08  , 25.84  , 25.599998  , 25.08  , 24.539999  , 23.74  , 22.6  , 22.02  , 20.459999  , 19.139999  , 18.1  , 17.719999  , 16.18  , 14.92  , 14.02  , 14.02  , 12.54  , 12.0  , 11.44  , 11.44  , 11.44  , 10.86  , 10.219999  , 9.559999  , 8.86  , 8.08  , 7.24  , 6.26  , 6.26  , 5.1  , 5.1  , 5.1  , 5.1  , 5.1  , 5.1  , 5.1  , 3.62  , 3.62  , 3.62  , 3.62  , 0.0  , 0.0  , 0.0  , 0.0  , 0.0  , 0.0  , 0.0  , 0.0  , 0.0  , 0.0  , 0.0  , 0.0  , 0.0  , 0.0  , 0.0  , 0.0  , 0.0  , 0.0  , 0.0  , 0.0  , 0.0  , 0.0 );
                        kernels[12] = compute_kernel(x,   23.459999  , 21.1  , 20.779999  , 18.799999  , 16.98  , 17.359999  , 16.18  , 16.58  , 16.18  , 14.92  , 14.02  , 12.54  , 11.44  , 11.44  , 11.44  , 11.44  , 10.219999  , 8.86  , 10.219999  , 10.86  , 10.86  , 10.219999  , 8.08  , 7.24  , 6.26  , 5.1  , 3.62  , 0.0  , 0.0  , 3.62  , 0.0  , 3.62  , 0.0  , 3.62  , 0.0  , 3.62  , 3.62  , 3.62  , 0.0  , 0.0  , 0.0  , 0.0  , 3.62  , 3.62  , 3.62  , 0.0  , 0.0  , 0.0  , 0.0  , 0.0  , 0.0  , 0.0  , 0.0  , 0.0  , 0.0  , 0.0  , 0.0  , 0.0  , 0.0  , 0.0  , 0.0  , 0.0  , 0.0  , 0.0 );
                        kernels[13] = compute_kernel(x,   29.4  , 23.74  , 19.82  , 20.139999  , 12.54  , 15.339999  , 11.44  , 36.739998  , 22.02  , 23.74  , 20.139999  , 19.82  , 15.339999  , 9.559999  , 7.24  , 0.0  , 3.62  , 8.86  , 12.54  , 13.04  , 14.92  , 19.82  , 15.339999  , 17.359999  , 17.719999  , 19.82  , 19.82  , 18.1  , 18.459999  , 17.719999  , 16.58  , 14.02  , 14.92  , 14.48  , 14.02  , 15.78  , 14.02  , 12.54  , 11.44  , 9.559999  , 8.08  , 8.08  , 5.1  , 8.08  , 3.62  , 5.1  , 7.24  , 8.08  , 7.24  , 6.26  , 5.1  , 5.1  , 3.62  , 0.0  , 3.62  , 3.62  , 0.0  , 0.0  , 0.0  , 0.0  , 0.0  , 0.0  , 0.0  , 0.0 );
                        kernels[14] = compute_kernel(x,   23.459999  , 22.02  , 19.82  , 18.459999  , 19.82  , 17.359999  , 12.54  , 8.86  , 6.26  , 5.1  , 3.62  , 3.62  , 0.0  , 0.0  , 5.1  , 5.1  , 5.1  , 0.0  , 5.1  , 8.08  , 8.86  , 8.08  , 7.24  , 5.1  , 3.62  , 0.0  , 0.0  , 0.0  , 0.0  , 3.62  , 0.0  , 0.0  , 3.62  , 5.1  , 8.86  , 9.559999  , 8.86  , 8.86  , 8.08  , 6.26  , 6.26  , 7.24  , 6.26  , 3.62  , 0.0  , 0.0  , 0.0  , 0.0  , 0.0  , 0.0  , 3.62  , 0.0  , 0.0  , 0.0  , 0.0  , 0.0  , 0.0  , 0.0  , 0.0  , 0.0  , 0.0  , 0.0  , 0.0  , 0.0 );
                        kernels[15] = compute_kernel(x,   46.919998  , 42.98  , 41.259998  , 38.82  , 27.08  , 18.799999  , 16.18  , 17.719999  , 29.619999  , 29.619999  , 14.02  , 6.26  , 14.92  , 21.1  , 19.139999  , 18.459999  , 18.459999  , 11.44  , 8.86  , 7.24  , 3.62  , 3.62  , 0.0  , 0.0  , 3.62  , 5.1  , 8.08  , 10.219999  , 11.44  , 13.54  , 16.18  , 18.1  , 19.139999  , 19.82  , 19.48  , 19.139999  , 18.459999  , 17.719999  , 16.98  , 15.78  , 14.92  , 14.02  , 13.54  , 12.54  , 12.0  , 12.0  , 11.44  , 10.86  , 10.219999  , 9.559999  , 8.86  , 8.86  , 8.08  , 7.24  , 7.24  , 6.26  , 5.1  , 5.1  , 3.62  , 3.62  , 3.62  , 0.0  , 0.0  , 0.0 );
                        kernels[16] = compute_kernel(x,   22.299999  , 22.299999  , 25.08  , 23.18  , 13.54  , 21.4  , 19.139999  , 14.92  , 20.139999  , 15.78  , 14.48  , 12.0  , 8.08  , 5.1  , 3.62  , 0.0  , 0.0  , 3.62  , 6.26  , 9.559999  , 12.0  , 13.54  , 14.92  , 16.58  , 18.1  , 20.459999  , 20.779999  , 19.48  , 18.1  , 16.98  , 15.78  , 14.92  , 14.02  , 13.54  , 13.04  , 12.54  , 12.0  , 11.44  , 10.219999  , 9.559999  , 8.08  , 7.24  , 6.26  , 5.1  , 5.1  , 3.62  , 3.62  , 3.62  , 3.62  , 3.62  , 3.62  , 3.62  , 3.62  , 3.62  , 3.62  , 3.62  , 3.62  , 3.62  , 0.0  , 0.0  , 0.0  , 0.0  , 0.0  , 0.0 );
                        kernels[17] = compute_kernel(x,   30.699999  , 28.719999  , 27.08  , 28.719999  , 24.82  , 26.34  , 20.779999  , 12.54  , 18.799999  , 14.92  , 15.339999  , 17.359999  , 15.78  , 13.54  , 13.04  , 10.219999  , 3.62  , 3.62  , 8.08  , 12.54  , 15.339999  , 15.339999  , 15.78  , 15.78  , 15.78  , 16.18  , 15.78  , 14.92  , 14.02  , 13.54  , 14.48  , 14.02  , 13.54  , 13.54  , 12.0  , 11.44  , 12.0  , 12.0  , 10.86  , 9.559999  , 9.559999  , 10.219999  , 12.0  , 12.0  , 12.0  , 10.86  , 9.559999  , 8.08  , 7.24  , 6.26  , 5.1  , 5.1  , 5.1  , 5.1  , 5.1  , 6.26  , 6.26  , 5.1  , 5.1  , 5.1  , 5.1  , 3.62  , 3.62  , 3.62 );
                        kernels[18] = compute_kernel(x,   16.98  , 14.48  , 11.44  , 7.24  , 3.62  , 0.0  , 3.62  , 7.24  , 10.86  , 12.0  , 12.54  , 13.54  , 16.58  , 18.459999  , 20.779999  , 20.459999  , 20.779999  , 20.779999  , 18.459999  , 19.139999  , 18.1  , 16.98  , 14.48  , 13.54  , 14.02  , 12.54  , 12.0  , 10.219999  , 10.86  , 10.86  , 12.0  , 10.219999  , 7.24  , 5.1  , 6.26  , 6.26  , 7.24  , 7.24  , 6.26  , 5.1  , 3.62  , 3.62  , 5.1  , 6.26  , 6.26  , 6.26  , 6.26  , 6.26  , 5.1  , 5.1  , 3.62  , 3.62  , 3.62  , 3.62  , 0.0  , 0.0  , 0.0  , 0.0  , 0.0  , 0.0  , 0.0  , 0.0  , 0.0  , 0.0 );
                        kernels[19] = compute_kernel(x,   22.02  , 10.86  , 18.1  , 18.1  , 18.459999  , 15.339999  , 13.54  , 10.86  , 6.26  , 3.62  , 0.0  , 0.0  , 0.0  , 0.0  , 0.0  , 3.62  , 5.1  , 6.26  , 10.219999  , 13.54  , 17.359999  , 16.58  , 16.58  , 19.48  , 18.799999  , 19.82  , 19.48  , 17.719999  , 15.339999  , 12.54  , 11.44  , 13.04  , 12.54  , 11.44  , 11.44  , 12.0  , 12.54  , 12.54  , 10.86  , 8.86  , 8.08  , 7.24  , 5.1  , 3.62  , 3.62  , 3.62  , 5.1  , 6.26  , 6.26  , 7.24  , 6.26  , 3.62  , 0.0  , 3.62  , 5.1  , 6.26  , 6.26  , 6.26  , 5.1  , 5.1  , 5.1  , 3.62  , 3.62  , 3.62 );
                        kernels[20] = compute_kernel(x,   15.339999  , 16.18  , 15.339999  , 11.44  , 8.86  , 5.1  , 0.0  , 0.0  , 6.26  , 9.559999  , 13.04  , 15.78  , 17.359999  , 18.459999  , 19.139999  , 20.459999  , 20.459999  , 18.799999  , 16.98  , 17.359999  , 18.1  , 18.1  , 18.1  , 17.359999  , 17.359999  , 16.98  , 16.58  , 15.78  , 15.339999  , 14.92  , 14.02  , 13.04  , 12.0  , 11.44  , 10.219999  , 9.559999  , 8.08  , 7.24  , 6.26  , 5.1  , 5.1  , 3.62  , 3.62  , 3.62  , 3.62  , 3.62  , 3.62  , 3.62  , 3.62  , 3.62  , 3.62  , 3.62  , 3.62  , 0.0  , 0.0  , 0.0  , 0.0  , 0.0  , 0.0  , 0.0  , 0.0  , 0.0  , 0.0  , 0.0 );
                        kernels[21] = compute_kernel(x,   23.459999  , 24.82  , 25.84  , 26.099998  , 26.34  , 25.599998  , 24.0  , 22.879999  , 21.4  , 20.139999  , 19.82  , 19.48  , 18.799999  , 17.719999  , 16.18  , 15.339999  , 14.48  , 13.54  , 12.0  , 11.44  , 10.86  , 9.559999  , 8.86  , 8.86  , 8.08  , 7.24  , 7.24  , 7.24  , 6.26  , 6.26  , 6.26  , 6.26  , 5.1  , 5.1  , 3.62  , 3.62  , 0.0  , 0.0  , 0.0  , 0.0  , 0.0  , 0.0  , 0.0  , 0.0  , 0.0  , 0.0  , 0.0  , 0.0  , 0.0  , 0.0  , 0.0  , 0.0  , 0.0  , 0.0  , 0.0  , 0.0  , 0.0  , 0.0  , 0.0  , 0.0  , 0.0  , 0.0  , 0.0  , 0.0 );
                        kernels[22] = compute_kernel(x,   22.299999  , 22.299999  , 21.4  , 21.1  , 20.459999  , 19.82  , 19.48  , 17.719999  , 15.78  , 13.54  , 13.04  , 12.54  , 11.44  , 10.86  , 10.86  , 10.86  , 10.86  , 10.219999  , 9.559999  , 8.86  , 8.08  , 7.24  , 7.24  , 7.24  , 6.26  , 5.1  , 3.62  , 3.62  , 3.62  , 3.62  , 3.62  , 3.62  , 3.62  , 3.62  , 0.0  , 0.0  , 0.0  , 0.0  , 0.0  , 0.0  , 0.0  , 0.0  , 0.0  , 0.0  , 0.0  , 0.0  , 0.0  , 0.0  , 0.0  , 0.0  , 0.0  , 0.0  , 0.0  , 0.0  , 0.0  , 0.0  , 0.0  , 0.0  , 0.0  , 0.0  , 0.0  , 0.0  , 0.0  , 0.0 );
                        kernels[23] = compute_kernel(x,   27.799999  , 25.08  , 24.279999  , 24.82  , 24.0  , 19.82  , 15.339999  , 10.219999  , 7.24  , 5.1  , 5.1  , 10.219999  , 10.219999  , 3.62  , 8.08  , 10.86  , 10.86  , 10.219999  , 9.559999  , 5.1  , 5.1  , 0.0  , 0.0  , 0.0  , 5.1  , 3.62  , 5.1  , 6.26  , 7.24  , 7.24  , 5.1  , 8.08  , 8.08  , 9.559999  , 10.219999  , 8.86  , 7.24  , 6.26  , 6.26  , 3.62  , 5.1  , 5.1  , 3.62  , 0.0  , 0.0  , 3.62  , 3.62  , 3.62  , 3.62  , 3.62  , 3.62  , 3.62  , 3.62  , 3.62  , 5.1  , 3.62  , 3.62  , 0.0  , 0.0  , 0.0  , 3.62  , 3.62  , 3.62  , 3.62 );
                        kernels[24] = compute_kernel(x,   34.899998  , 36.380001  , 41.899998  , 48.959999  , 46.5  , 42.98  , 41.099998  , 40.939999  , 44.919998  , 42.200001  , 37.259998  , 29.179998  , 22.879999  , 19.82  , 17.719999  , 16.98  , 5.1  , 3.62  , 10.219999  , 8.08  , 7.24  , 6.26  , 5.1  , 0.0  , 0.0  , 0.0  , 5.1  , 8.86  , 8.08  , 10.219999  , 11.44  , 13.04  , 14.92  , 14.92  , 15.339999  , 13.54  , 13.04  , 13.04  , 13.54  , 14.02  , 13.54  , 12.54  , 12.54  , 10.219999  , 8.86  , 8.86  , 7.24  , 7.24  , 7.24  , 8.08  , 7.24  , 7.24  , 6.26  , 5.1  , 3.62  , 3.62  , 3.62  , 0.0  , 0.0  , 0.0  , 0.0  , 0.0  , 0.0  , 0.0 );
                        kernels[25] = compute_kernel(x,   39.139999  , 40.779999  , 48.700001  , 44.619999  , 47.48  , 46.200001  , 48.959999  , 45.639999  , 34.139999  , 25.84  , 19.139999  , 19.48  , 18.799999  , 16.58  , 14.02  , 0.0  , 10.219999  , 12.0  , 12.54  , 12.54  , 11.44  , 9.559999  , 10.219999  , 8.08  , 3.62  , 0.0  , 0.0  , 5.1  , 7.24  , 7.24  , 7.24  , 8.08  , 10.219999  , 12.0  , 10.86  , 12.54  , 14.48  , 14.48  , 15.339999  , 16.58  , 17.719999  , 18.799999  , 17.719999  , 16.98  , 15.339999  , 14.02  , 13.04  , 11.44  , 9.559999  , 9.559999  , 10.219999  , 9.559999  , 9.559999  , 8.86  , 8.08  , 6.26  , 5.1  , 3.62  , 5.1  , 7.24  , 8.86  , 8.08  , 5.1  , 3.62 );
                        kernels[26] = compute_kernel(x,   38.98  , 38.98  , 44.18  , 38.139999  , 32.380001  , 30.059999  , 29.4  , 27.799999  , 28.26  , 16.58  , 19.48  , 18.459999  , 15.78  , 16.18  , 13.04  , 12.54  , 9.559999  , 7.24  , 5.1  , 3.62  , 0.0  , 0.0  , 5.1  , 9.559999  , 13.04  , 14.48  , 14.92  , 15.339999  , 15.339999  , 15.78  , 16.18  , 16.98  , 17.719999  , 16.98  , 16.58  , 17.359999  , 17.719999  , 16.58  , 16.98  , 16.58  , 15.78  , 13.54  , 12.0  , 10.86  , 10.219999  , 10.219999  , 10.219999  , 9.559999  , 9.559999  , 8.86  , 8.08  , 7.24  , 7.24  , 6.26  , 5.1  , 5.1  , 3.62  , 3.62  , 3.62  , 3.62  , 0.0  , 0.0  , 0.0  , 0.0 );
                        kernels[27] = compute_kernel(x,   23.74  , 24.279999  , 24.0  , 22.6  , 24.539999  , 22.6  , 22.02  , 19.48  , 19.139999  , 17.719999  , 16.58  , 16.58  , 16.58  , 14.92  , 14.48  , 14.02  , 13.04  , 11.44  , 10.219999  , 9.559999  , 10.86  , 10.86  , 10.219999  , 8.86  , 7.24  , 8.08  , 8.08  , 7.24  , 6.26  , 5.1  , 5.1  , 3.62  , 3.62  , 3.62  , 3.62  , 0.0  , 0.0  , 0.0  , 0.0  , 0.0  , 0.0  , 3.62  , 3.62  , 3.62  , 0.0  , 0.0  , 0.0  , 0.0  , 0.0  , 0.0  , 0.0  , 0.0  , 0.0  , 0.0  , 0.0  , 0.0  , 0.0  , 0.0  , 0.0  , 0.0  , 0.0  , 0.0  , 0.0  , 0.0 );
                        kernels[28] = compute_kernel(x,   28.039999  , 25.34  , 24.0  , 22.299999  , 19.139999  , 18.1  , 17.359999  , 16.58  , 15.339999  , 14.02  , 12.54  , 11.44  , 9.559999  , 3.62  , 8.08  , 8.86  , 8.08  , 3.62  , 3.62  , 0.0  , 0.0  , 5.1  , 7.24  , 9.559999  , 7.24  , 9.559999  , 8.08  , 10.86  , 9.559999  , 8.86  , 10.219999  , 8.08  , 8.86  , 8.08  , 6.26  , 7.24  , 5.1  , 6.26  , 5.1  , 5.1  , 3.62  , 0.0  , 3.62  , 0.0  , 3.62  , 5.1  , 5.1  , 3.62  , 3.62  , 3.62  , 0.0  , 3.62  , 0.0  , 0.0  , 0.0  , 0.0  , 0.0  , 0.0  , 0.0  , 0.0  , 0.0  , 0.0  , 3.62  , 0.0 );
                        kernels[29] = compute_kernel(x,   25.599998  , 26.599998  , 26.34  , 26.599998  , 25.34  , 25.08  , 25.599998  , 26.099998  , 24.539999  , 23.74  , 24.0  , 23.459999  , 21.719999  , 20.139999  , 17.719999  , 17.359999  , 17.719999  , 16.58  , 15.339999  , 14.02  , 14.48  , 14.02  , 13.54  , 13.54  , 11.44  , 11.44  , 10.86  , 10.86  , 10.219999  , 8.08  , 8.08  , 8.86  , 8.86  , 6.26  , 5.1  , 3.62  , 5.1  , 5.1  , 5.1  , 3.62  , 3.62  , 3.62  , 3.62  , 3.62  , 3.62  , 3.62  , 3.62  , 0.0  , 0.0  , 0.0  , 0.0  , 0.0  , 0.0  , 0.0  , 0.0  , 0.0  , 0.0  , 0.0  , 0.0  , 0.0  , 0.0  , 0.0  , 0.0  , 0.0 );
                        kernels[30] = compute_kernel(x,   42.98  , 39.48  , 31.76  , 26.34  , 18.1  , 11.44  , 18.459999  , 25.08  , 28.26  , 27.32  , 20.459999  , 16.18  , 15.78  , 10.86  , 6.26  , 0.0  , 0.0  , 3.62  , 5.1  , 8.08  , 8.86  , 11.44  , 14.48  , 16.18  , 18.799999  , 19.82  , 20.779999  , 20.779999  , 20.139999  , 19.48  , 19.48  , 19.82  , 17.359999  , 17.359999  , 15.339999  , 15.78  , 15.78  , 14.48  , 13.54  , 12.54  , 10.86  , 9.559999  , 9.559999  , 8.86  , 7.24  , 9.559999  , 9.559999  , 8.86  , 8.08  , 6.26  , 5.1  , 0.0  , 5.1  , 3.62  , 5.1  , 5.1  , 3.62  , 0.0  , 0.0  , 0.0  , 0.0  , 0.0  , 0.0  , 0.0 );
                        kernels[31] = compute_kernel(x,   22.879999  , 22.02  , 19.139999  , 14.92  , 10.219999  , 5.1  , 0.0  , 0.0  , 0.0  , 5.1  , 8.08  , 10.86  , 12.54  , 14.02  , 14.92  , 16.18  , 16.18  , 16.98  , 17.359999  , 17.359999  , 17.359999  , 16.98  , 15.339999  , 14.92  , 14.92  , 13.04  , 13.04  , 12.54  , 10.219999  , 10.219999  , 8.86  , 8.08  , 7.24  , 7.24  , 6.26  , 6.26  , 6.26  , 6.26  , 5.1  , 5.1  , 3.62  , 3.62  , 3.62  , 3.62  , 3.62  , 3.62  , 3.62  , 3.62  , 3.62  , 0.0  , 0.0  , 0.0  , 3.62  , 3.62  , 3.62  , 3.62  , 3.62  , 3.62  , 3.62  , 3.62  , 3.62  , 3.62  , 3.62  , 3.62 );
                        kernels[32] = compute_kernel(x,   23.74  , 16.58  , 17.719999  , 15.339999  , 8.08  , 0.0  , 0.0  , 5.1  , 8.08  , 10.219999  , 11.44  , 13.04  , 15.78  , 16.58  , 17.719999  , 19.139999  , 20.139999  , 21.4  , 22.6  , 21.4  , 20.779999  , 19.82  , 18.459999  , 16.58  , 16.98  , 15.339999  , 15.78  , 13.54  , 13.54  , 13.54  , 13.04  , 12.0  , 10.86  , 10.86  , 9.559999  , 10.219999  , 8.86  , 8.08  , 7.24  , 6.26  , 6.26  , 6.26  , 5.1  , 3.62  , 3.62  , 0.0  , 0.0  , 3.62  , 3.62  , 3.62  , 3.62  , 5.1  , 3.62  , 3.62  , 3.62  , 0.0  , 3.62  , 3.62  , 3.62  , 3.62  , 3.62  , 3.62  , 0.0  , 0.0 );
                        kernels[33] = compute_kernel(x,   28.5  , 28.26  , 28.959999  , 29.4  , 28.26  , 27.32  , 27.08  , 27.799999  , 26.84  , 25.84  , 24.0  , 22.6  , 21.1  , 19.82  , 20.779999  , 21.1  , 19.82  , 17.359999  , 14.92  , 12.0  , 10.219999  , 8.08  , 8.08  , 6.26  , 7.24  , 7.24  , 6.26  , 6.26  , 6.26  , 6.26  , 6.26  , 5.1  , 5.1  , 5.1  , 3.62  , 3.62  , 3.62  , 3.62  , 5.1  , 5.1  , 5.1  , 3.62  , 3.62  , 3.62  , 0.0  , 0.0  , 0.0  , 0.0  , 0.0  , 0.0  , 0.0  , 0.0  , 3.62  , 3.62  , 0.0  , 0.0  , 0.0  , 0.0  , 0.0  , 0.0  , 0.0  , 0.0  , 0.0  , 0.0 );
                        kernels[34] = compute_kernel(x,   22.299999  , 21.719999  , 22.02  , 22.02  , 22.299999  , 21.719999  , 21.4  , 20.459999  , 19.48  , 17.719999  , 16.58  , 15.339999  , 15.339999  , 14.48  , 13.04  , 13.04  , 12.0  , 12.0  , 11.44  , 9.559999  , 10.219999  , 10.219999  , 9.559999  , 8.86  , 7.24  , 6.26  , 5.1  , 6.26  , 6.26  , 5.1  , 3.62  , 5.1  , 3.62  , 3.62  , 3.62  , 3.62  , 0.0  , 0.0  , 0.0  , 0.0  , 0.0  , 3.62  , 3.62  , 3.62  , 5.1  , 5.1  , 5.1  , 5.1  , 5.1  , 5.1  , 3.62  , 3.62  , 3.62  , 3.62  , 0.0  , 0.0  , 0.0  , 0.0  , 0.0  , 0.0  , 0.0  , 0.0  , 0.0  , 0.0 );
                        kernels[35] = compute_kernel(x,   27.08  , 27.799999  , 25.599998  , 27.559999  , 31.76  , 36.739998  , 38.82  , 45.639999  , 47.879997  , 46.200001  , 46.639999  , 46.5  , 44.32  , 38.299999  , 22.879999  , 15.78  , 28.5  , 24.82  , 23.18  , 25.34  , 25.84  , 22.6  , 16.58  , 14.02  , 10.219999  , 8.08  , 5.1  , 0.0  , 0.0  , 0.0  , 6.26  , 10.219999  , 13.04  , 15.339999  , 16.98  , 18.459999  , 20.139999  , 22.02  , 23.459999  , 24.279999  , 24.0  , 23.459999  , 22.299999  , 21.1  , 19.82  , 18.799999  , 18.1  , 16.98  , 16.18  , 14.92  , 14.02  , 13.04  , 12.0  , 10.86  , 10.219999  , 9.559999  , 8.08  , 7.24  , 6.26  , 5.1  , 5.1  , 5.1  , 3.62  , 3.62 );
                        kernels[36] = compute_kernel(x,   22.6  , 22.6  , 19.82  , 16.98  , 12.54  , 11.44  , 10.219999  , 11.44  , 11.44  , 10.86  , 10.86  , 8.86  , 8.08  , 8.08  , 10.219999  , 10.86  , 11.44  , 11.44  , 11.44  , 10.86  , 10.219999  , 8.86  , 8.08  , 7.24  , 6.26  , 6.26  , 6.26  , 6.26  , 6.26  , 5.1  , 5.1  , 5.1  , 3.62  , 3.62  , 3.62  , 3.62  , 3.62  , 0.0  , 0.0  , 0.0  , 0.0  , 0.0  , 0.0  , 0.0  , 0.0  , 0.0  , 0.0  , 0.0  , 0.0  , 0.0  , 0.0  , 0.0  , 0.0  , 0.0  , 0.0  , 0.0  , 0.0  , 0.0  , 0.0  , 0.0  , 0.0  , 0.0  , 0.0  , 0.0 );
                        kernels[37] = compute_kernel(x,   27.08  , 34.899998  , 41.899998  , 48.84  , 51.059998  , 48.959999  , 44.32  , 38.299999  , 30.92  , 23.74  , 20.139999  , 14.48  , 14.48  , 21.1  , 25.599998  , 25.08  , 22.02  , 16.98  , 10.219999  , 7.24  , 5.1  , 0.0  , 0.0  , 0.0  , 6.26  , 10.219999  , 13.54  , 15.78  , 17.359999  , 19.139999  , 21.4  , 22.6  , 22.879999  , 22.02  , 20.459999  , 19.139999  , 18.1  , 16.98  , 16.18  , 14.92  , 14.48  , 14.02  , 13.04  , 12.54  , 11.44  , 10.86  , 10.219999  , 9.559999  , 8.86  , 8.08  , 8.08  , 7.24  , 7.24  , 6.26  , 6.26  , 5.1  , 5.1  , 3.62  , 3.62  , 0.0  , 0.0  , 0.0  , 0.0  , 0.0 );
                        kernels[38] = compute_kernel(x,   22.02  , 21.4  , 21.719999  , 19.82  , 18.1  , 15.78  , 10.86  , 8.08  , 5.1  , 3.62  , 0.0  , 3.62  , 6.26  , 7.24  , 7.24  , 8.86  , 10.86  , 12.54  , 12.54  , 12.0  , 14.48  , 13.04  , 15.78  , 14.48  , 16.18  , 14.92  , 13.04  , 13.54  , 12.54  , 12.0  , 12.54  , 10.219999  , 10.86  , 9.559999  , 10.219999  , 9.559999  , 8.86  , 7.24  , 6.26  , 8.86  , 8.08  , 7.24  , 7.24  , 5.1  , 6.26  , 6.26  , 5.1  , 5.1  , 3.62  , 3.62  , 3.62  , 3.62  , 3.62  , 3.62  , 0.0  , 0.0  , 0.0  , 0.0  , 0.0  , 0.0  , 0.0  , 0.0  , 0.0  , 0.0 );
                        kernels[39] = compute_kernel(x,   46.200001  , 37.619999  , 29.84  , 14.92  , 3.62  , 5.1  , 10.86  , 14.92  , 16.18  , 17.359999  , 17.359999  , 14.92  , 12.54  , 9.559999  , 5.1  , 0.0  , 3.62  , 6.26  , 8.08  , 10.219999  , 12.54  , 12.0  , 12.0  , 11.44  , 12.0  , 14.48  , 15.339999  , 16.18  , 16.18  , 14.92  , 14.92  , 13.54  , 12.0  , 10.86  , 9.559999  , 8.86  , 8.08  , 7.24  , 6.26  , 8.08  , 8.86  , 8.86  , 7.24  , 7.24  , 8.08  , 8.08  , 8.08  , 7.24  , 6.26  , 5.1  , 5.1  , 3.62  , 3.62  , 3.62  , 0.0  , 0.0  , 0.0  , 0.0  , 0.0  , 0.0  , 0.0  , 0.0  , 0.0  , 0.0 );
                        kernels[40] = compute_kernel(x,   22.299999  , 22.299999  , 21.719999  , 21.1  , 20.139999  , 19.48  , 18.459999  , 17.719999  , 16.58  , 15.339999  , 14.48  , 13.04  , 12.54  , 11.44  , 10.86  , 10.219999  , 9.559999  , 8.86  , 8.08  , 7.24  , 6.26  , 6.26  , 6.26  , 5.1  , 5.1  , 5.1  , 5.1  , 5.1  , 5.1  , 5.1  , 5.1  , 5.1  , 5.1  , 5.1  , 3.62  , 3.62  , 3.62  , 0.0  , 0.0  , 0.0  , 0.0  , 0.0  , 0.0  , 0.0  , 0.0  , 0.0  , 0.0  , 0.0  , 0.0  , 0.0  , 0.0  , 0.0  , 0.0  , 0.0  , 0.0  , 0.0  , 0.0  , 0.0  , 0.0  , 0.0  , 0.0  , 0.0  , 0.0  , 0.0 );
                        kernels[41] = compute_kernel(x,   30.059999  , 44.32  , 66.459999  , 63.619999  , 64.760002  , 55.259998  , 42.360001  , 31.959999  , 19.139999  , 10.219999  , 13.54  , 19.139999  , 22.299999  , 18.459999  , 18.1  , 16.98  , 13.54  , 9.559999  , 7.24  , 0.0  , 0.0  , 0.0  , 0.0  , 3.62  , 6.26  , 7.24  , 9.559999  , 10.86  , 13.54  , 16.18  , 17.719999  , 18.459999  , 18.1  , 17.719999  , 17.719999  , 17.719999  , 15.78  , 15.339999  , 13.54  , 13.54  , 12.0  , 11.44  , 11.44  , 10.86  , 10.219999  , 9.559999  , 8.86  , 8.08  , 8.08  , 8.08  , 8.08  , 6.26  , 6.26  , 5.1  , 3.62  , 0.0  , 0.0  , 3.62  , 3.62  , 3.62  , 3.62  , 5.1  , 3.62  , 0.0 );
                        kernels[42] = compute_kernel(x,   28.26  , 31.139999  , 51.32  , 72.220001  , 80.860001  , 83.099998  , 76.459999  , 67.519997  , 52.32  , 34.34  , 22.879999  , 21.1  , 17.719999  , 20.139999  , 22.6  , 18.799999  , 19.82  , 19.48  , 16.98  , 13.04  , 8.08  , 0.0  , 3.62  , 8.08  , 11.44  , 13.54  , 14.48  , 15.339999  , 16.98  , 19.48  , 22.02  , 23.74  , 24.82  , 24.82  , 24.539999  , 23.459999  , 22.6  , 21.4  , 20.459999  , 19.139999  , 18.1  , 16.98  , 15.78  , 14.92  , 14.02  , 13.04  , 12.0  , 10.86  , 10.219999  , 9.559999  , 8.86  , 8.08  , 7.24  , 6.26  , 5.1  , 5.1  , 5.1  , 3.62  , 3.62  , 3.62  , 3.62  , 3.62  , 0.0  , 0.0 );
                        kernels[43] = compute_kernel(x,   22.6  , 23.18  , 23.18  , 22.879999  , 22.299999  , 21.4  , 20.459999  , 19.48  , 18.459999  , 17.719999  , 16.58  , 15.339999  , 14.48  , 13.54  , 12.54  , 11.44  , 10.86  , 9.559999  , 8.86  , 8.08  , 8.08  , 7.24  , 6.26  , 6.26  , 6.26  , 6.26  , 5.1  , 5.1  , 5.1  , 5.1  , 5.1  , 3.62  , 3.62  , 3.62  , 0.0  , 0.0  , 0.0  , 0.0  , 0.0  , 0.0  , 0.0  , 0.0  , 0.0  , 0.0  , 0.0  , 0.0  , 0.0  , 0.0  , 0.0  , 0.0  , 0.0  , 0.0  , 0.0  , 0.0  , 0.0  , 0.0  , 0.0  , 0.0  , 0.0  , 0.0  , 0.0  , 0.0  , 0.0  , 0.0 );
                        kernels[44] = compute_kernel(x,   19.48  , 16.18  , 13.54  , 8.86  , 3.62  , 0.0  , 0.0  , 6.26  , 8.08  , 10.219999  , 9.559999  , 10.86  , 10.86  , 10.86  , 12.54  , 14.02  , 15.339999  , 16.18  , 14.48  , 13.04  , 13.04  , 12.0  , 10.219999  , 10.219999  , 10.86  , 10.86  , 11.44  , 12.0  , 11.44  , 11.44  , 11.44  , 11.44  , 10.219999  , 9.559999  , 9.559999  , 9.559999  , 10.219999  , 11.44  , 12.0  , 11.44  , 10.86  , 9.559999  , 8.08  , 7.24  , 7.24  , 6.26  , 5.1  , 6.26  , 7.24  , 8.08  , 8.08  , 7.24  , 6.26  , 6.26  , 6.26  , 5.1  , 5.1  , 3.62  , 3.62  , 0.0  , 0.0  , 0.0  , 0.0  , 0.0 );
                        kernels[45] = compute_kernel(x,   21.1  , 22.879999  , 26.34  , 28.959999  , 39.48  , 44.779999  , 45.5  , 50.68  , 47.48  , 47.48  , 37.259998  , 35.459999  , 42.059998  , 14.48  , 12.0  , 18.459999  , 20.779999  , 22.6  , 20.139999  , 16.18  , 12.0  , 8.08  , 6.26  , 5.1  , 0.0  , 0.0  , 7.24  , 10.86  , 14.48  , 16.58  , 17.719999  , 17.719999  , 17.359999  , 17.719999  , 18.1  , 18.459999  , 19.139999  , 19.48  , 19.48  , 19.139999  , 18.799999  , 18.459999  , 17.359999  , 16.18  , 15.339999  , 14.02  , 13.04  , 12.0  , 11.44  , 10.86  , 10.219999  , 8.86  , 8.08  , 8.08  , 7.24  , 6.26  , 6.26  , 5.1  , 3.62  , 3.62  , 3.62  , 0.0  , 0.0  , 0.0 );
                        kernels[46] = compute_kernel(x,   26.34  , 26.599998  , 25.08  , 24.0  , 24.279999  , 24.82  , 23.74  , 21.719999  , 21.4  , 19.48  , 20.139999  , 19.82  , 18.1  , 15.78  , 15.339999  , 14.02  , 13.54  , 12.54  , 12.0  , 12.0  , 9.559999  , 9.559999  , 8.08  , 8.08  , 7.24  , 7.24  , 5.1  , 6.26  , 6.26  , 6.26  , 6.26  , 5.1  , 3.62  , 3.62  , 3.62  , 3.62  , 3.62  , 3.62  , 3.62  , 3.62  , 3.62  , 0.0  , 0.0  , 0.0  , 3.62  , 3.62  , 3.62  , 3.62  , 0.0  , 0.0  , 0.0  , 0.0  , 0.0  , 0.0  , 0.0  , 0.0  , 0.0  , 0.0  , 0.0  , 0.0  , 0.0  , 0.0  , 0.0  , 0.0 );
                        kernels[47] = compute_kernel(x,   25.599998  , 27.559999  , 28.5  , 30.279999  , 28.959999  , 28.719999  , 28.039999  , 28.26  , 27.799999  , 28.5  , 27.32  , 27.08  , 25.84  , 24.82  , 23.18  , 22.02  , 20.779999  , 19.82  , 17.719999  , 16.98  , 16.18  , 15.339999  , 15.339999  , 14.92  , 14.02  , 13.04  , 10.86  , 9.559999  , 9.559999  , 9.559999  , 10.219999  , 8.86  , 8.08  , 8.08  , 7.24  , 7.24  , 6.26  , 6.26  , 6.26  , 7.24  , 7.24  , 7.24  , 7.24  , 7.24  , 6.26  , 6.26  , 5.1  , 3.62  , 3.62  , 0.0  , 0.0  , 0.0  , 0.0  , 0.0  , 0.0  , 0.0  , 0.0  , 0.0  , 0.0  , 0.0  , 0.0  , 0.0  , 0.0  , 0.0 );
                        kernels[48] = compute_kernel(x,   22.6  , 23.74  , 23.74  , 22.879999  , 23.18  , 23.74  , 23.459999  , 22.02  , 21.1  , 20.459999  , 19.48  , 18.459999  , 17.359999  , 16.18  , 14.92  , 14.02  , 13.04  , 12.0  , 12.0  , 11.44  , 11.44  , 10.86  , 10.219999  , 9.559999  , 8.86  , 8.08  , 7.24  , 7.24  , 6.26  , 5.1  , 5.1  , 5.1  , 3.62  , 3.62  , 3.62  , 3.62  , 0.0  , 0.0  , 0.0  , 0.0  , 0.0  , 0.0  , 0.0  , 0.0  , 0.0  , 0.0  , 0.0  , 0.0  , 0.0  , 0.0  , 0.0  , 0.0  , 0.0  , 0.0  , 0.0  , 0.0  , 0.0  , 0.0  , 0.0  , 0.0  , 0.0  , 0.0  , 0.0  , 0.0 );
                        kernels[49] = compute_kernel(x,   21.4  , 23.459999  , 25.84  , 26.84  , 26.099998  , 25.34  , 26.599998  , 27.559999  , 27.08  , 26.099998  , 25.34  , 25.84  , 26.599998  , 26.099998  , 25.34  , 24.539999  , 22.6  , 20.139999  , 18.1  , 16.98  , 14.02  , 14.92  , 17.359999  , 18.459999  , 16.58  , 14.02  , 10.86  , 10.219999  , 10.86  , 10.86  , 9.559999  , 9.559999  , 9.559999  , 8.86  , 9.559999  , 10.219999  , 10.86  , 11.44  , 10.86  , 9.559999  , 8.08  , 6.26  , 5.1  , 5.1  , 5.1  , 3.62  , 3.62  , 3.62  , 3.62  , 3.62  , 3.62  , 0.0  , 0.0  , 0.0  , 0.0  , 0.0  , 0.0  , 0.0  , 0.0  , 0.0  , 0.0  , 0.0  , 0.0  , 0.0 );
                        kernels[50] = compute_kernel(x,   21.4  , 22.02  , 21.719999  , 21.4  , 20.779999  , 19.82  , 19.139999  , 18.1  , 16.98  , 16.18  , 15.339999  , 14.48  , 13.54  , 13.04  , 12.0  , 11.44  , 10.86  , 10.86  , 10.219999  , 10.219999  , 9.559999  , 8.86  , 8.08  , 8.08  , 7.24  , 6.26  , 5.1  , 5.1  , 3.62  , 3.62  , 3.62  , 0.0  , 0.0  , 0.0  , 0.0  , 0.0  , 0.0  , 0.0  , 0.0  , 0.0  , 0.0  , 0.0  , 0.0  , 0.0  , 0.0  , 0.0  , 0.0  , 0.0  , 0.0  , 0.0  , 0.0  , 0.0  , 0.0  , 0.0  , 0.0  , 0.0  , 0.0  , 0.0  , 0.0  , 0.0  , 0.0  , 0.0  , 0.0  , 0.0 );
                        kernels[51] = compute_kernel(x,   34.52  , 48.84  , 76.979996  , 102.519997  , 103.919998  , 108.599998  , 87.699997  , 78.900002  , 50.539997  , 29.619999  , 26.34  , 22.6  , 27.08  , 29.84  , 26.34  , 22.879999  , 22.299999  , 19.139999  , 14.92  , 11.44  , 6.26  , 0.0  , 0.0  , 0.0  , 5.1  , 6.26  , 9.559999  , 12.0  , 12.0  , 14.02  , 17.359999  , 19.48  , 20.139999  , 19.82  , 20.779999  , 21.719999  , 22.299999  , 24.0  , 24.0  , 23.74  , 21.719999  , 20.779999  , 21.1  , 21.1  , 20.779999  , 20.459999  , 19.82  , 18.459999  , 16.98  , 15.339999  , 14.02  , 13.04  , 12.0  , 10.86  , 10.219999  , 9.559999  , 8.86  , 8.86  , 8.08  , 7.24  , 7.24  , 6.26  , 6.26  , 5.1 );
                        kernels[52] = compute_kernel(x,   25.34  , 26.34  , 25.84  , 24.82  , 24.0  , 25.08  , 21.719999  , 20.139999  , 17.359999  , 14.48  , 13.54  , 12.54  , 12.54  , 13.04  , 14.02  , 14.48  , 14.02  , 14.02  , 12.54  , 10.86  , 9.559999  , 8.08  , 8.08  , 7.24  , 7.24  , 7.24  , 7.24  , 7.24  , 6.26  , 5.1  , 5.1  , 5.1  , 5.1  , 5.1  , 3.62  , 3.62  , 3.62  , 3.62  , 0.0  , 0.0  , 0.0  , 0.0  , 0.0  , 0.0  , 0.0  , 0.0  , 0.0  , 0.0  , 0.0  , 0.0  , 0.0  , 0.0  , 0.0  , 0.0  , 0.0  , 0.0  , 0.0  , 0.0  , 0.0  , 0.0  , 0.0  , 0.0  , 0.0  , 0.0 );
                        kernels[53] = compute_kernel(x,   29.84  , 33.360001  , 39.48  , 57.0  , 77.720001  , 93.0  , 93.839996  , 94.68  , 86.580002  , 57.799999  , 39.139999  , 37.259998  , 39.98  , 39.98  , 41.739998  , 45.639999  , 37.959999  , 30.059999  , 24.0  , 19.139999  , 14.92  , 12.0  , 8.08  , 3.62  , 0.0  , 5.1  , 7.24  , 9.559999  , 12.0  , 13.54  , 17.719999  , 21.1  , 25.08  , 24.539999  , 25.599998  , 25.84  , 26.599998  , 26.84  , 26.34  , 25.599998  , 25.08  , 25.34  , 24.82  , 23.459999  , 22.879999  , 21.719999  , 21.4  , 19.139999  , 17.719999  , 16.98  , 14.92  , 14.02  , 13.54  , 12.0  , 12.54  , 9.559999  , 10.219999  , 8.08  , 7.24  , 7.24  , 7.24  , 6.26  , 6.26  , 6.26 );
                        kernels[54] = compute_kernel(x,   21.4  , 21.4  , 21.1  , 20.459999  , 18.459999  , 16.98  , 16.58  , 16.58  , 14.92  , 13.54  , 13.04  , 11.44  , 10.86  , 10.219999  , 9.559999  , 8.86  , 8.86  , 8.86  , 8.86  , 8.86  , 8.08  , 6.26  , 5.1  , 3.62  , 3.62  , 3.62  , 3.62  , 3.62  , 0.0  , 0.0  , 0.0  , 0.0  , 0.0  , 3.62  , 3.62  , 3.62  , 3.62  , 0.0  , 0.0  , 0.0  , 0.0  , 0.0  , 0.0  , 0.0  , 0.0  , 0.0  , 0.0  , 0.0  , 0.0  , 0.0  , 0.0  , 0.0  , 0.0  , 0.0  , 0.0  , 0.0  , 0.0  , 0.0  , 0.0  , 0.0  , 0.0  , 0.0  , 0.0  , 0.0 );
                        kernels[55] = compute_kernel(x,   19.139999  , 27.559999  , 19.82  , 20.139999  , 26.34  , 31.959999  , 6.26  , 8.08  , 10.219999  , 12.0  , 8.86  , 0.0  , 0.0  , 0.0  , 0.0  , 0.0  , 3.62  , 6.26  , 8.08  , 8.08  , 8.86  , 10.219999  , 11.44  , 12.54  , 12.54  , 12.54  , 11.44  , 10.86  , 10.219999  , 10.86  , 9.559999  , 9.559999  , 8.86  , 8.86  , 8.08  , 8.08  , 8.08  , 8.08  , 8.08  , 8.08  , 8.08  , 8.08  , 8.08  , 7.24  , 7.24  , 6.26  , 6.26  , 6.26  , 5.1  , 5.1  , 5.1  , 5.1  , 3.62  , 3.62  , 3.62  , 3.62  , 3.62  , 3.62  , 0.0  , 0.0  , 0.0  , 0.0  , 0.0  , 0.0 );
                        kernels[56] = compute_kernel(x,   16.58  , 26.099998  , 39.639999  , 28.26  , 29.179998  , 41.579998  , 28.5  , 26.84  , 21.1  , 25.84  , 8.08  , 14.48  , 11.44  , 10.219999  , 0.0  , 0.0  , 0.0  , 0.0  , 0.0  , 0.0  , 3.62  , 3.62  , 3.62  , 3.62  , 6.26  , 8.08  , 8.08  , 9.559999  , 10.86  , 12.54  , 14.48  , 15.78  , 16.98  , 17.359999  , 17.719999  , 17.359999  , 16.58  , 15.339999  , 14.02  , 13.04  , 12.0  , 12.0  , 11.44  , 11.44  , 10.86  , 10.86  , 10.219999  , 9.559999  , 8.86  , 8.08  , 7.24  , 6.26  , 6.26  , 5.1  , 5.1  , 3.62  , 3.62  , 3.62  , 3.62  , 3.62  , 3.62  , 3.62  , 3.62  , 3.62 );
                        kernels[57] = compute_kernel(x,   20.779999  , 21.719999  , 19.82  , 16.98  , 14.92  , 13.04  , 10.86  , 8.08  , 5.1  , 3.62  , 0.0  , 0.0  , 0.0  , 0.0  , 3.62  , 3.62  , 5.1  , 5.1  , 6.26  , 7.24  , 8.08  , 8.08  , 8.86  , 8.86  , 9.559999  , 10.219999  , 10.86  , 10.86  , 10.219999  , 10.219999  , 9.559999  , 8.86  , 8.86  , 8.08  , 7.24  , 7.24  , 6.26  , 6.26  , 6.26  , 5.1  , 5.1  , 5.1  , 5.1  , 3.62  , 3.62  , 3.62  , 3.62  , 3.62  , 3.62  , 3.62  , 0.0  , 0.0  , 0.0  , 0.0  , 0.0  , 0.0  , 0.0  , 0.0  , 0.0  , 0.0  , 0.0  , 0.0  , 0.0  , 0.0 );
                        kernels[58] = compute_kernel(x,   39.139999  , 36.919998  , 39.82  , 42.360001  , 38.98  , 21.1  , 21.1  , 23.459999  , 23.459999  , 26.34  , 28.039999  , 28.039999  , 28.039999  , 25.08  , 19.139999  , 15.339999  , 7.24  , 7.24  , 5.1  , 5.1  , 0.0  , 0.0  , 0.0  , 0.0  , 5.1  , 7.24  , 9.559999  , 9.559999  , 10.219999  , 11.44  , 13.04  , 14.48  , 15.339999  , 15.78  , 15.78  , 15.339999  , 14.92  , 14.02  , 13.54  , 12.54  , 12.0  , 11.44  , 11.44  , 10.86  , 10.219999  , 9.559999  , 8.86  , 8.08  , 8.08  , 7.24  , 7.24  , 6.26  , 6.26  , 6.26  , 5.1  , 5.1  , 5.1  , 5.1  , 3.62  , 3.62  , 3.62  , 3.62  , 3.62  , 3.62 );
                        kernels[59] = compute_kernel(x,   30.059999  , 30.059999  , 27.32  , 21.719999  , 15.339999  , 9.559999  , 7.24  , 10.86  , 22.02  , 16.58  , 11.44  , 7.24  , 21.1  , 22.02  , 15.78  , 21.719999  , 15.339999  , 14.02  , 14.48  , 11.44  , 9.559999  , 9.559999  , 8.08  , 5.1  , 3.62  , 0.0  , 0.0  , 0.0  , 3.62  , 5.1  , 3.62  , 0.0  , 0.0  , 3.62  , 5.1  , 7.24  , 8.08  , 10.219999  , 11.44  , 12.0  , 12.54  , 12.0  , 12.0  , 10.86  , 10.219999  , 9.559999  , 9.559999  , 8.86  , 8.08  , 8.08  , 7.24  , 7.24  , 6.26  , 6.26  , 5.1  , 5.1  , 5.1  , 3.62  , 3.62  , 3.62  , 3.62  , 3.62  , 0.0  , 0.0 );
                        kernels[60] = compute_kernel(x,   24.82  , 27.08  , 31.76  , 31.76  , 29.179998  , 24.539999  , 18.1  , 10.219999  , 7.24  , 5.1  , 11.44  , 24.82  , 17.359999  , 19.48  , 22.02  , 22.299999  , 22.02  , 24.539999  , 37.959999  , 11.44  , 14.02  , 12.54  , 10.86  , 14.02  , 12.0  , 8.08  , 6.26  , 3.62  , 0.0  , 0.0  , 0.0  , 5.1  , 7.24  , 9.559999  , 9.559999  , 8.86  , 8.08  , 8.86  , 8.86  , 8.86  , 10.219999  , 10.86  , 11.44  , 11.44  , 11.44  , 11.44  , 13.54  , 14.92  , 14.02  , 12.54  , 12.0  , 12.0  , 11.44  , 10.219999  , 8.86  , 8.08  , 8.08  , 7.24  , 7.24  , 6.26  , 5.1  , 5.1  , 3.62  , 3.62 );
                        kernels[61] = compute_kernel(x,   20.459999  , 22.6  , 22.02  , 20.779999  , 21.1  , 21.1  , 16.98  , 8.08  , 7.24  , 6.26  , 3.62  , 0.0  , 0.0  , 0.0  , 3.62  , 3.62  , 7.24  , 8.08  , 9.559999  , 10.219999  , 10.219999  , 10.219999  , 11.44  , 11.44  , 10.86  , 10.86  , 10.86  , 11.44  , 12.54  , 12.54  , 13.04  , 13.04  , 12.54  , 12.0  , 11.44  , 10.86  , 10.86  , 8.86  , 8.08  , 8.08  , 8.08  , 8.08  , 8.08  , 7.24  , 7.24  , 7.24  , 6.26  , 6.26  , 5.1  , 5.1  , 3.62  , 3.62  , 3.62  , 3.62  , 3.62  , 3.62  , 0.0  , 0.0  , 0.0  , 0.0  , 0.0  , 0.0  , 0.0  , 0.0 );
                        kernels[62] = compute_kernel(x,   19.139999  , 19.48  , 12.54  , 6.26  , 5.1  , 0.0  , 0.0  , 3.62  , 7.24  , 8.08  , 8.86  , 9.559999  , 10.86  , 11.44  , 12.54  , 13.04  , 15.339999  , 15.339999  , 15.78  , 15.78  , 15.339999  , 15.78  , 14.92  , 14.02  , 13.54  , 12.0  , 11.44  , 12.0  , 12.0  , 11.44  , 10.86  , 10.219999  , 9.559999  , 8.86  , 8.08  , 7.24  , 6.26  , 6.26  , 5.1  , 5.1  , 5.1  , 5.1  , 5.1  , 5.1  , 5.1  , 5.1  , 3.62  , 3.62  , 3.62  , 3.62  , 3.62  , 0.0  , 0.0  , 0.0  , 0.0  , 0.0  , 0.0  , 0.0  , 0.0  , 0.0  , 0.0  , 0.0  , 0.0  , 0.0 );
                        kernels[63] = compute_kernel(x,   30.699999  , 37.439999  , 42.82  , 43.579998  , 41.099998  , 39.139999  , 25.599998  , 19.82  , 14.92  , 14.02  , 17.359999  , 25.84  , 18.459999  , 27.32  , 48.16  , 21.1  , 18.799999  , 14.92  , 19.139999  , 18.1  , 17.359999  , 15.339999  , 9.559999  , 5.1  , 3.62  , 8.86  , 8.86  , 6.26  , 3.62  , 3.62  , 3.62  , 5.1  , 7.24  , 7.24  , 9.559999  , 12.0  , 14.02  , 14.48  , 15.339999  , 16.58  , 16.58  , 16.98  , 16.58  , 15.339999  , 14.92  , 14.48  , 14.02  , 12.54  , 12.54  , 12.0  , 10.86  , 9.559999  , 9.559999  , 8.86  , 8.08  , 7.24  , 7.24  , 6.26  , 6.26  , 5.1  , 5.1  , 5.1  , 3.62  , 3.62 );
                        kernels[64] = compute_kernel(x,   14.02  , 24.539999  , 24.279999  , 23.459999  , 19.48  , 12.0  , 8.08  , 3.62  , 0.0  , 0.0  , 3.62  , 5.1  , 5.1  , 7.24  , 6.26  , 8.08  , 9.559999  , 10.86  , 10.219999  , 8.08  , 8.08  , 9.559999  , 12.54  , 15.339999  , 17.719999  , 18.799999  , 18.799999  , 18.459999  , 18.1  , 17.359999  , 16.58  , 15.339999  , 14.48  , 13.54  , 12.54  , 11.44  , 10.219999  , 9.559999  , 8.86  , 8.08  , 8.08  , 7.24  , 7.24  , 7.24  , 7.24  , 6.26  , 6.26  , 6.26  , 5.1  , 5.1  , 5.1  , 3.62  , 3.62  , 3.62  , 3.62  , 3.62  , 3.62  , 0.0  , 0.0  , 0.0  , 0.0  , 0.0  , 0.0  , 0.0 );
                        kernels[65] = compute_kernel(x,   23.18  , 28.039999  , 32.18  , 34.34  , 28.5  , 22.02  , 12.54  , 8.86  , 10.86  , 10.219999  , 8.08  , 7.24  , 5.1  , 5.1  , 5.1  , 5.1  , 3.62  , 3.62  , 3.62  , 3.62  , 6.26  , 7.24  , 7.24  , 5.1  , 3.62  , 0.0  , 0.0  , 0.0  , 0.0  , 0.0  , 0.0  , 0.0  , 3.62  , 5.1  , 5.1  , 6.26  , 6.26  , 6.26  , 6.26  , 6.26  , 6.26  , 6.26  , 6.26  , 6.26  , 5.1  , 5.1  , 5.1  , 3.62  , 3.62  , 3.62  , 3.62  , 3.62  , 3.62  , 0.0  , 0.0  , 0.0  , 0.0  , 0.0  , 0.0  , 0.0  , 0.0  , 0.0  , 0.0  , 0.0 );
                        kernels[66] = compute_kernel(x,   64.760002  , 65.260002  , 51.199997  , 39.98  , 33.759998  , 30.279999  , 33.559998  , 22.6  , 28.5  , 34.52  , 33.18  , 32.18  , 29.619999  , 26.099998  , 19.48  , 16.58  , 16.18  , 5.1  , 8.08  , 5.1  , 6.26  , 5.1  , 0.0  , 3.62  , 7.24  , 8.08  , 11.44  , 11.44  , 12.0  , 9.559999  , 8.08  , 10.86  , 12.0  , 12.54  , 13.54  , 14.02  , 15.78  , 16.18  , 16.98  , 18.1  , 19.48  , 20.139999  , 19.139999  , 18.459999  , 17.359999  , 16.98  , 16.98  , 17.719999  , 18.1  , 17.719999  , 16.98  , 15.78  , 14.48  , 13.54  , 12.54  , 11.44  , 10.86  , 9.559999  , 8.86  , 7.24  , 6.26  , 6.26  , 5.1  , 3.62 );
                        kernels[67] = compute_kernel(x,   24.279999  , 25.08  , 23.459999  , 18.799999  , 14.02  , 10.86  , 8.08  , 8.08  , 8.08  , 13.04  , 11.44  , 14.92  , 19.82  , 18.799999  , 20.139999  , 20.139999  , 19.48  , 16.58  , 13.04  , 8.86  , 5.1  , 0.0  , 0.0  , 0.0  , 0.0  , 5.1  , 7.24  , 8.08  , 8.86  , 8.08  , 9.559999  , 10.86  , 10.86  , 10.219999  , 9.559999  , 8.08  , 8.08  , 8.08  , 8.86  , 8.86  , 8.86  , 8.86  , 8.86  , 8.08  , 7.24  , 7.24  , 6.26  , 6.26  , 5.1  , 5.1  , 3.62  , 3.62  , 3.62  , 3.62  , 3.62  , 3.62  , 0.0  , 0.0  , 0.0  , 0.0  , 0.0  , 0.0  , 0.0  , 0.0 );
                        kernels[68] = compute_kernel(x,   23.74  , 15.78  , 12.54  , 7.24  , 6.26  , 6.26  , 8.08  , 16.18  , 19.48  , 18.799999  , 19.139999  , 18.799999  , 18.1  , 16.58  , 14.92  , 12.54  , 10.219999  , 7.24  , 5.1  , 3.62  , 0.0  , 0.0  , 0.0  , 0.0  , 0.0  , 0.0  , 5.1  , 5.1  , 7.24  , 8.86  , 10.219999  , 11.44  , 12.0  , 12.0  , 12.54  , 13.04  , 12.0  , 12.0  , 11.44  , 10.219999  , 8.86  , 8.08  , 7.24  , 8.08  , 8.08  , 8.08  , 8.08  , 7.24  , 7.24  , 5.1  , 5.1  , 5.1  , 5.1  , 5.1  , 6.26  , 6.26  , 6.26  , 6.26  , 6.26  , 5.1  , 5.1  , 3.62  , 3.62  , 0.0 );
                        kernels[69] = compute_kernel(x,   27.32  , 25.34  , 27.559999  , 32.380001  , 35.099998  , 33.360001  , 32.380001  , 27.799999  , 22.879999  , 6.26  , 6.26  , 14.48  , 18.799999  , 21.719999  , 21.1  , 24.539999  , 26.599998  , 23.74  , 23.18  , 18.799999  , 15.78  , 9.559999  , 8.08  , 5.1  , 0.0  , 0.0  , 0.0  , 3.62  , 5.1  , 7.24  , 8.86  , 10.219999  , 12.0  , 12.0  , 13.04  , 11.44  , 10.219999  , 10.219999  , 9.559999  , 10.219999  , 11.44  , 8.08  , 10.86  , 8.08  , 7.24  , 7.24  , 7.24  , 8.08  , 7.24  , 8.08  , 8.08  , 6.26  , 7.24  , 7.24  , 5.1  , 5.1  , 5.1  , 5.1  , 6.26  , 6.26  , 5.1  , 5.1  , 5.1  , 5.1 );
                        kernels[70] = compute_kernel(x,   29.84  , 28.039999  , 20.459999  , 14.02  , 7.24  , 8.86  , 7.24  , 6.26  , 6.26  , 10.219999  , 12.54  , 14.02  , 12.0  , 10.219999  , 9.559999  , 9.559999  , 6.26  , 7.24  , 0.0  , 0.0  , 0.0  , 0.0  , 0.0  , 0.0  , 0.0  , 5.1  , 7.24  , 8.86  , 10.219999  , 10.219999  , 10.219999  , 9.559999  , 9.559999  , 8.86  , 8.86  , 8.08  , 8.08  , 8.08  , 8.08  , 7.24  , 7.24  , 6.26  , 6.26  , 5.1  , 5.1  , 5.1  , 3.62  , 3.62  , 3.62  , 0.0  , 0.0  , 0.0  , 0.0  , 0.0  , 0.0  , 0.0  , 0.0  , 0.0  , 0.0  , 0.0  , 0.0  , 0.0  , 0.0  , 0.0 );
                        kernels[71] = compute_kernel(x,   24.539999  , 23.18  , 23.18  , 26.84  , 19.48  , 18.1  , 25.599998  , 33.360001  , 18.459999  , 22.879999  , 27.799999  , 24.82  , 25.08  , 19.82  , 18.799999  , 11.44  , 6.26  , 3.62  , 0.0  , 0.0  , 0.0  , 3.62  , 7.24  , 6.26  , 10.219999  , 12.54  , 8.08  , 8.08  , 8.86  , 11.44  , 13.04  , 14.02  , 14.92  , 15.339999  , 14.92  , 13.54  , 12.54  , 12.0  , 12.0  , 12.0  , 11.44  , 10.86  , 10.219999  , 9.559999  , 8.86  , 8.08  , 8.08  , 8.08  , 7.24  , 7.24  , 6.26  , 6.26  , 6.26  , 5.1  , 5.1  , 3.62  , 3.62  , 3.62  , 3.62  , 3.62  , 3.62  , 3.62  , 3.62  , 3.62 );
                        kernels[72] = compute_kernel(x,   27.799999  , 22.879999  , 25.34  , 26.599998  , 32.18  , 34.52  , 31.959999  , 27.799999  , 23.18  , 14.02  , 7.24  , 33.18  , 13.04  , 8.86  , 19.82  , 19.48  , 21.4  , 28.719999  , 19.82  , 18.459999  , 20.139999  , 21.719999  , 18.459999  , 14.92  , 9.559999  , 5.1  , 0.0  , 0.0  , 0.0  , 0.0  , 3.62  , 5.1  , 7.24  , 8.08  , 8.08  , 6.26  , 6.26  , 6.26  , 8.08  , 8.08  , 8.86  , 10.219999  , 11.44  , 11.44  , 12.0  , 12.0  , 11.44  , 11.44  , 10.219999  , 10.219999  , 9.559999  , 9.559999  , 8.86  , 8.08  , 8.08  , 8.08  , 8.08  , 8.86  , 8.86  , 8.08  , 8.08  , 7.24  , 6.26  , 5.1 );
                        kernels[73] = compute_kernel(x,   29.619999  , 25.599998  , 21.4  , 18.1  , 10.219999  , 7.24  , 13.54  , 23.74  , 28.5  , 28.26  , 31.76  , 29.84  , 21.719999  , 26.599998  , 20.779999  , 21.4  , 22.299999  , 15.78  , 12.0  , 9.559999  , 7.24  , 3.62  , 0.0  , 0.0  , 3.62  , 5.1  , 6.26  , 8.86  , 8.86  , 12.0  , 13.04  , 13.54  , 14.02  , 13.54  , 13.04  , 12.0  , 10.86  , 11.44  , 12.54  , 13.04  , 13.54  , 12.54  , 12.54  , 11.44  , 10.219999  , 8.86  , 8.08  , 8.08  , 9.559999  , 10.219999  , 10.86  , 10.219999  , 9.559999  , 8.86  , 7.24  , 6.26  , 5.1  , 5.1  , 5.1  , 5.1  , 5.1  , 3.62  , 3.62  , 3.62 );
                        kernels[74] = compute_kernel(x,   22.879999  , 21.4  , 20.139999  , 17.719999  , 15.78  , 13.04  , 10.86  , 8.86  , 3.62  , 6.26  , 5.1  , 0.0  , 0.0  , 0.0  , 3.62  , 5.1  , 5.1  , 8.08  , 9.559999  , 10.219999  , 10.219999  , 10.86  , 12.0  , 12.0  , 10.219999  , 12.0  , 11.44  , 11.44  , 9.559999  , 9.559999  , 8.86  , 8.08  , 6.26  , 6.26  , 6.26  , 5.1  , 5.1  , 5.1  , 5.1  , 6.26  , 5.1  , 5.1  , 5.1  , 5.1  , 5.1  , 3.62  , 3.62  , 3.62  , 3.62  , 3.62  , 3.62  , 3.62  , 3.62  , 3.62  , 3.62  , 3.62  , 3.62  , 0.0  , 0.0  , 0.0  , 0.0  , 0.0  , 0.0  , 0.0 );
                        kernels[75] = compute_kernel(x,   32.98  , 37.259998  , 42.360001  , 40.779999  , 36.02  , 32.380001  , 26.34  , 16.98  , 13.04  , 14.02  , 10.219999  , 15.339999  , 18.799999  , 19.139999  , 19.48  , 19.48  , 18.459999  , 16.98  , 15.339999  , 14.02  , 12.54  , 8.08  , 8.08  , 8.86  , 5.1  , 0.0  , 0.0  , 0.0  , 3.62  , 5.1  , 6.26  , 8.86  , 10.219999  , 10.86  , 10.219999  , 10.219999  , 9.559999  , 8.86  , 8.08  , 8.08  , 8.08  , 8.08  , 8.08  , 8.08  , 8.86  , 9.559999  , 10.219999  , 9.559999  , 10.219999  , 10.86  , 10.86  , 11.44  , 10.86  , 10.219999  , 9.559999  , 8.86  , 8.08  , 7.24  , 6.26  , 5.1  , 3.62  , 0.0  , 0.0  , 0.0 );
                        kernels[76] = compute_kernel(x,   29.179998  , 39.82  , 53.939999  , 40.939999  , 21.719999  , 14.92  , 12.54  , 22.02  , 10.219999  , 8.08  , 12.0  , 7.24  , 6.26  , 0.0  , 5.1  , 0.0  , 5.1  , 10.219999  , 9.559999  , 9.559999  , 10.86  , 12.0  , 14.02  , 16.18  , 16.98  , 16.98  , 16.58  , 15.78  , 14.92  , 14.02  , 13.54  , 13.54  , 13.54  , 13.54  , 13.54  , 13.04  , 12.0  , 11.44  , 10.86  , 9.559999  , 8.86  , 8.08  , 7.24  , 7.24  , 6.26  , 5.1  , 5.1  , 5.1  , 3.62  , 3.62  , 3.62  , 0.0  , 0.0  , 0.0  , 0.0  , 0.0  , 0.0  , 0.0  , 0.0  , 0.0  , 0.0  , 0.0  , 0.0  , 0.0 );
                        kernels[77] = compute_kernel(x,   41.579998  , 35.639999  , 34.139999  , 30.279999  , 21.1  , 10.86  , 14.02  , 12.0  , 9.559999  , 8.86  , 7.24  , 5.1  , 3.62  , 3.62  , 3.62  , 0.0  , 0.0  , 0.0  , 0.0  , 3.62  , 0.0  , 0.0  , 3.62  , 5.1  , 5.1  , 3.62  , 0.0  , 0.0  , 0.0  , 0.0  , 0.0  , 0.0  , 3.62  , 3.62  , 5.1  , 5.1  , 5.1  , 5.1  , 5.1  , 5.1  , 5.1  , 3.62  , 3.62  , 3.62  , 3.62  , 3.62  , 0.0  , 0.0  , 0.0  , 0.0  , 0.0  , 0.0  , 0.0  , 0.0  , 0.0  , 0.0  , 0.0  , 0.0  , 0.0  , 0.0  , 0.0  , 0.0  , 0.0  , 0.0 );
                        kernels[78] = compute_kernel(x,   19.82  , 24.0  , 27.559999  , 28.959999  , 29.4  , 26.099998  , 22.6  , 12.0  , 10.219999  , 9.559999  , 5.1  , 3.62  , 6.26  , 12.54  , 14.92  , 20.139999  , 21.719999  , 19.48  , 14.92  , 11.44  , 8.08  , 6.26  , 3.62  , 0.0  , 0.0  , 0.0  , 0.0  , 3.62  , 6.26  , 7.24  , 8.08  , 8.08  , 8.86  , 8.86  , 9.559999  , 9.559999  , 9.559999  , 9.559999  , 8.86  , 8.86  , 8.08  , 8.08  , 7.24  , 6.26  , 6.26  , 5.1  , 5.1  , 3.62  , 3.62  , 3.62  , 3.62  , 3.62  , 3.62  , 0.0  , 0.0  , 0.0  , 0.0  , 0.0  , 0.0  , 0.0  , 0.0  , 0.0  , 0.0  , 0.0 );
                        decisions[0] = 0.364143611226
                        + kernels[0] * 4.795844e-06
                        + kernels[1] * 0.001365071523
                        + kernels[2] * 9.2416583e-05
                        + kernels[3] * 1.8371331e-05
                        + kernels[4] * 0.000172046217
                        + kernels[5] * 5.1964649e-05
                        + kernels[6] * 0.001391520666
                        + kernels[7] * 1.9949688e-05
                        + kernels[8] * 0.000206582477
                        + kernels[11] * 0.001599673761
                        + kernels[12] * 0.000453269632
                        + kernels[13] * 0.000126213735
                        + kernels[15] * 2.6041406e-05
                        + kernels[16] * 2.0479196e-05
                        + kernels[18] * 0.0004427912
                        + kernels[20] * 0.000110970235
                        + kernels[21] * 0.002855032148
                        + kernels[22] * 0.003956849456
                        + kernels[24] * 5.4295887e-05
                        + kernels[27] * 0.000586911253
                        + kernels[28] * 0.000237216572
                        + kernels[29] * -0.000369946985
                        + kernels[30] * -9.9681067e-05
                        + kernels[31] * -0.000133827707
                        + kernels[32] * -0.000194411058
                        + kernels[33] * -1.2926708e-05
                        + kernels[34] * -0.000749043853
                        + kernels[38] * -6.4882415e-05
                        + kernels[40] * -3.8254228e-05
                        + kernels[41] * -3.5501116e-05
                        + kernels[42] * -1.6518847e-05
                        + kernels[43] * -0.004220495977
                        + kernels[44] * -0.000156693241
                        + kernels[46] * -0.000332749387
                        + kernels[47] * -0.000112973074
                        + kernels[48] * -0.002554441146
                        + kernels[49] * -0.000653450131
                        + kernels[50] * -0.001218723863
                        + kernels[51] * -1.633803e-06
                        + kernels[52] * -0.002169730503
                        + kernels[53] * -5.213018e-06
                        + kernels[54] * -0.000651365331
                        ;
                        decisions[1] = -1.313517739828
                        + kernels[0] * 6.617174e-06
                        + kernels[5] * 6.10767e-06
                        + kernels[9] * 3.1320609e-05
                        + kernels[10] * 4.955605e-06
                        + kernels[14] * 0.000105886752
                        + kernels[15] * 2.1847934e-05
                        + kernels[17] * 9.522895e-06
                        + kernels[18] * 8.3801642e-05
                        + kernels[19] * 9.913685e-06
                        + kernels[20] * 2.7609297e-05
                        + kernels[22] * 2.046524e-05
                        + kernels[23] * 7.6247143e-05
                        + kernels[25] * 1.3393312e-05
                        + kernels[26] * 8.835598e-06
                        + kernels[28] * 2.7137793e-05
                        + kernels[55] * -1.2559824e-05
                        + kernels[56] * -1.6151934e-05
                        + kernels[57] * -1.612793e-06
                        + kernels[58] * -1.7435111e-05
                        + kernels[61] * -5.0933254e-05
                        + kernels[62] * -0.000170384238
                        + kernels[65] * -1.7660302e-05
                        + kernels[66] * -9.26121e-07
                        + kernels[68] * -4.318703e-06
                        + kernels[69] * -2.9945509e-05
                        + kernels[71] * -1.6448129e-05
                        + kernels[72] * -6.897124e-06
                        + kernels[73] * -1.3032866e-05
                        + kernels[74] * -1.9450036e-05
                        + kernels[77] * -5.5385819e-05
                        + kernels[78] * -2.0520587e-05
                        ;
                        decisions[2] = -1.384387558751
                        + kernels[31] * 4.3153716e-05
                        + kernels[35] * 2.855534e-06
                        + kernels[36] * 0.000143355834
                        + kernels[37] * 1.321356e-06
                        + kernels[38] * 0.000140003562
                        + kernels[39] * 2.1155889e-05
                        + kernels[41] * 8.403057e-06
                        + kernels[44] * 0.000134274662
                        + kernels[45] * 3.63022e-07
                        + kernels[51] * 1.447636e-06
                        + kernels[53] * 8.14144e-07
                        + kernels[55] * -1.667008e-06
                        + kernels[56] * -4.083557e-06
                        + kernels[58] * -2.88931e-06
                        + kernels[59] * -4.351462e-06
                        + kernels[60] * -1.259603e-06
                        + kernels[62] * -0.000202344274
                        + kernels[63] * -6.01004e-07
                        + kernels[64] * -3.1183036e-05
                        + kernels[67] * -1.4385832e-05
                        + kernels[69] * -2.2281455e-05
                        + kernels[70] * -2.462854e-06
                        + kernels[71] * -1.0439618e-05
                        + kernels[72] * -6.008427e-06
                        + kernels[73] * -1.1087063e-05
                        + kernels[74] * -0.000146482662
                        + kernels[75] * -6.798756e-06
                        + kernels[76] * -1.576243e-05
                        + kernels[77] * -5.275662e-06
                        + kernels[78] * -7.7844e-06
                        ;
                        votes[decisions[0] > 0 ? 0 : 1] += 1;
                        votes[decisions[1] > 0 ? 0 : 2] += 1;
                        votes[decisions[2] > 0 ? 1 : 2] += 1;
                        int val = votes[0];
                        int idx = 0;

                        for (int i = 1; i < 3; i++) {
                            if (votes[i] > val) {
                                val = votes[i];
                                idx = i;
                            }
                        }

                        return idx;
                    }

                    /**
                    * Predict readable class name
                    */
                    const char* predictLabel(float *x) {
                        return idxToLabel(predict(x));
                    }

                    /**
                    * Convert class idx to readable name
                    */
                    const char* idxToLabel(uint8_t classIdx) {
                        switch (classIdx) {
                            case 0:
                            return "bye";
                            case 1:
                            return "hello";
                            case 2:
                            return "yes";
                            default:
                            return "Houston we have a problem";
                        }
                    }

                protected:
                    /**
                    * Compute kernel between feature vector and support vector.
                    * Kernel type: poly
                    */
                    float compute_kernel(float *x, ...) {
                        va_list w;
                        va_start(w, 64);
                        float kernel = 0.0;

                        for (uint16_t i = 0; i < 64; i++) {
                            kernel += x[i] * va_arg(w, double);
                        }

                        return pow((0.1 * kernel) + 0.0, 2);
                    }
                };
            }
        }
    }